digraph Tree {
node [shape=box] ;
0 [label="ÏúÁ¿ <= 0.0\nentropy = 0.998\nsamples = 34\nvalue = [16, 18]"] ;
1 [label="entropy = 0.0\nsamples = 16\nvalue = [16, 0]"] ;
0 -> 1 [labeldistance=2.5, labelangle=45, headlabel="True"] ;
2 [label="entropy = 0.0\nsamples = 18\nvalue = [0, 18]"] ;
0 -> 2 [labeldistance=2.5, labelangle=-45, headlabel="False"] ;
}